#pragma once
#include <cstdarg>
#include <cstdint>
namespace Eloquent {
    namespace ML {
        namespace Port {
            class RandomForest {
                public:
                    /**
                    * Predict class for features vector
                    */
                    int predict(float *x) {
                        uint8_t votes[2] = { 0 };
                        // tree #1
                        if (x[2] <= -0.9384118616580963) {
                            if (x[5] <= 0.017109237611293793) {
                                votes[0] += 1;
                            }

                            else {
                                if (x[4] <= 0.6708678007125854) {
                                    votes[0] += 1;
                                }

                                else {
                                    votes[1] += 1;
                                }
                            }
                        }

                        else {
                            votes[1] += 1;
                        }

                        // tree #2
                        if (x[2] <= -0.9384118616580963) {
                            if (x[2] <= -1.1343059539794922) {
                                if (x[0] <= -1.472383975982666) {
                                    votes[0] += 1;
                                }

                                else {
                                    votes[1] += 1;
                                }
                            }

                            else {
                                if (x[8] <= 0.000499994435813278) {
                                    votes[0] += 1;
                                }

                                else {
                                    votes[1] += 1;
                                }
                            }
                        }

                        else {
                            votes[1] += 1;
                        }

                        // tree #3
                        if (x[6] <= 0.00041945604607462883) {
                            if (x[2] <= -0.9384118616580963) {
                                if (x[4] <= 1.3082911670207977) {
                                    if (x[2] <= -1.036358892917633) {
                                        votes[0] += 1;
                                    }

                                    else {
                                        if (x[5] <= 0.03285194467753172) {
                                            votes[0] += 1;
                                        }

                                        else {
                                            votes[1] += 1;
                                        }
                                    }
                                }

                                else {
                                    votes[1] += 1;
                                }
                            }

                            else {
                                votes[1] += 1;
                            }
                        }

                        else {
                            if (x[0] <= -1.1064824759960175) {
                                votes[0] += 1;
                            }

                            else {
                                votes[1] += 1;
                            }
                        }

                        // tree #4
                        if (x[5] <= 0.016597705893218517) {
                            if (x[0] <= 0.06962952762842178) {
                                votes[0] += 1;
                            }

                            else {
                                votes[1] += 1;
                            }
                        }

                        else {
                            if (x[7] <= -0.020018190145492554) {
                                if (x[7] <= -0.029117866419255733) {
                                    votes[1] += 1;
                                }

                                else {
                                    votes[0] += 1;
                                }
                            }

                            else {
                                if (x[2] <= -1.1343059539794922) {
                                    if (x[4] <= 1.1989343464374542) {
                                        votes[0] += 1;
                                    }

                                    else {
                                        votes[1] += 1;
                                    }
                                }

                                else {
                                    votes[1] += 1;
                                }
                            }
                        }

                        // tree #5
                        if (x[6] <= 0.00041945604607462883) {
                            if (x[2] <= -0.9384118616580963) {
                                if (x[5] <= 0.017109237611293793) {
                                    votes[0] += 1;
                                }

                                else {
                                    if (x[8] <= 0.00016666388546582311) {
                                        votes[1] += 1;
                                    }

                                    else {
                                        votes[0] += 1;
                                    }
                                }
                            }

                            else {
                                votes[1] += 1;
                            }
                        }

                        else {
                            votes[1] += 1;
                        }

                        // tree #6
                        if (x[2] <= -0.9384118616580963) {
                            if (x[5] <= 0.017109237611293793) {
                                votes[0] += 1;
                            }

                            else {
                                if (x[7] <= 0.015666796825826168) {
                                    votes[1] += 1;
                                }

                                else {
                                    if (x[5] <= 0.11065157875418663) {
                                        votes[0] += 1;
                                    }

                                    else {
                                        votes[1] += 1;
                                    }
                                }
                            }
                        }

                        else {
                            votes[1] += 1;
                        }

                        // tree #7
                        if (x[5] <= 0.014519785530865192) {
                            votes[0] += 1;
                        }

                        else {
                            if (x[0] <= -1.799081802368164) {
                                votes[0] += 1;
                            }

                            else {
                                if (x[5] <= 0.016597705893218517) {
                                    if (x[0] <= -0.028379805386066437) {
                                        votes[0] += 1;
                                    }

                                    else {
                                        votes[1] += 1;
                                    }
                                }

                                else {
                                    votes[1] += 1;
                                }
                            }
                        }

                        // tree #8
                        if (x[0] <= -0.028379807248711586) {
                            if (x[3] <= 0.6573463082313538) {
                                if (x[6] <= -0.003833333379589021) {
                                    votes[0] += 1;
                                }

                                else {
                                    if (x[7] <= 0.00880835042335093) {
                                        votes[0] += 1;
                                    }

                                    else {
                                        votes[1] += 1;
                                    }
                                }
                            }

                            else {
                                votes[1] += 1;
                            }
                        }

                        else {
                            votes[1] += 1;
                        }

                        // tree #9
                        if (x[2] <= -0.9384118616580963) {
                            if (x[5] <= 0.0413749348372221) {
                                votes[0] += 1;
                            }

                            else {
                                votes[1] += 1;
                            }
                        }

                        else {
                            votes[1] += 1;
                        }

                        // tree #10
                        if (x[0] <= -0.028379807248711586) {
                            if (x[5] <= 0.02152237296104431) {
                                votes[0] += 1;
                            }

                            else {
                                votes[1] += 1;
                            }
                        }

                        else {
                            votes[1] += 1;
                        }

                        // tree #11
                        if (x[0] <= -0.3648785203695297) {
                            if (x[7] <= -0.029117866419255733) {
                                votes[1] += 1;
                            }

                            else {
                                if (x[5] <= 0.07030078768730164) {
                                    votes[0] += 1;
                                }

                                else {
                                    votes[1] += 1;
                                }
                            }
                        }

                        else {
                            if (x[2] <= -1.036358892917633) {
                                if (x[8] <= -0.00016666666488163173) {
                                    votes[1] += 1;
                                }

                                else {
                                    votes[0] += 1;
                                }
                            }

                            else {
                                votes[1] += 1;
                            }
                        }

                        // tree #12
                        if (x[2] <= -0.9384118616580963) {
                            if (x[3] <= 0.6587656736373901) {
                                if (x[5] <= 0.04298519715666771) {
                                    votes[0] += 1;
                                }

                                else {
                                    votes[1] += 1;
                                }
                            }

                            else {
                                votes[1] += 1;
                            }
                        }

                        else {
                            votes[1] += 1;
                        }

                        // tree #13
                        if (x[2] <= -0.9384118616580963) {
                            if (x[4] <= 1.1611324846744537) {
                                if (x[1] <= -0.5691364258527756) {
                                    votes[1] += 1;
                                }

                                else {
                                    votes[0] += 1;
                                }
                            }

                            else {
                                votes[1] += 1;
                            }
                        }

                        else {
                            votes[1] += 1;
                        }

                        // tree #14
                        if (x[2] <= -0.9384118616580963) {
                            if (x[6] <= 0.005749880336225033) {
                                if (x[2] <= -1.2812265157699585) {
                                    votes[1] += 1;
                                }

                                else {
                                    if (x[1] <= -0.5691364258527756) {
                                        votes[1] += 1;
                                    }

                                    else {
                                        votes[0] += 1;
                                    }
                                }
                            }

                            else {
                                votes[1] += 1;
                            }
                        }

                        else {
                            votes[1] += 1;
                        }

                        // tree #15
                        if (x[2] <= -0.9384118616580963) {
                            if (x[2] <= -1.2322530150413513) {
                                votes[1] += 1;
                            }

                            else {
                                if (x[5] <= 0.03369495552033186) {
                                    votes[0] += 1;
                                }

                                else {
                                    votes[1] += 1;
                                }
                            }
                        }

                        else {
                            votes[1] += 1;
                        }

                        // tree #16
                        if (x[1] <= -0.1804233193397522) {
                            votes[1] += 1;
                        }

                        else {
                            if (x[2] <= -0.5466236770153046) {
                                if (x[5] <= 0.0761723155155778) {
                                    votes[0] += 1;
                                }

                                else {
                                    votes[1] += 1;
                                }
                            }

                            else {
                                votes[1] += 1;
                            }
                        }

                        // tree #17
                        if (x[5] <= 0.01977621018886566) {
                            if (x[7] <= -0.012666666880249977) {
                                votes[0] += 1;
                            }

                            else {
                                if (x[1] <= -0.17514415830373764) {
                                    votes[1] += 1;
                                }

                                else {
                                    votes[0] += 1;
                                }
                            }
                        }

                        else {
                            votes[1] += 1;
                        }

                        // tree #18
                        if (x[0] <= -0.14599100686609745) {
                            if (x[3] <= 0.6491719782352448) {
                                votes[0] += 1;
                            }

                            else {
                                votes[1] += 1;
                            }
                        }

                        else {
                            if (x[5] <= 0.014880165457725525) {
                                votes[0] += 1;
                            }

                            else {
                                votes[1] += 1;
                            }
                        }

                        // tree #19
                        if (x[5] <= 0.016597705893218517) {
                            if (x[0] <= 0.06962952762842178) {
                                votes[0] += 1;
                            }

                            else {
                                votes[1] += 1;
                            }
                        }

                        else {
                            if (x[1] <= 0.969600647687912) {
                                votes[1] += 1;
                            }

                            else {
                                if (x[4] <= 1.1334816217422485) {
                                    votes[0] += 1;
                                }

                                else {
                                    votes[1] += 1;
                                }
                            }
                        }

                        // tree #20
                        if (x[2] <= -0.9384118616580963) {
                            if (x[1] <= -0.29795414954423904) {
                                votes[1] += 1;
                            }

                            else {
                                if (x[8] <= -0.009914335678331554) {
                                    votes[1] += 1;
                                }

                                else {
                                    if (x[5] <= 0.14686928316950798) {
                                        votes[0] += 1;
                                    }

                                    else {
                                        votes[1] += 1;
                                    }
                                }
                            }
                        }

                        else {
                            votes[1] += 1;
                        }

                        // tree #21
                        if (x[2] <= -0.9384118616580963) {
                            if (x[4] <= 1.1253975927829742) {
                                votes[0] += 1;
                            }

                            else {
                                votes[1] += 1;
                            }
                        }

                        else {
                            votes[1] += 1;
                        }

                        // tree #22
                        if (x[0] <= -0.5412953197956085) {
                            if (x[3] <= 0.6491719782352448) {
                                votes[0] += 1;
                            }

                            else {
                                votes[1] += 1;
                            }
                        }

                        else {
                            votes[1] += 1;
                        }

                        // tree #23
                        if (x[2] <= -0.9384118616580963) {
                            if (x[5] <= 0.018653053790330887) {
                                if (x[1] <= -0.6916685774922371) {
                                    votes[1] += 1;
                                }

                                else {
                                    votes[0] += 1;
                                }
                            }

                            else {
                                if (x[3] <= 0.16881214827299118) {
                                    votes[0] += 1;
                                }

                                else {
                                    votes[1] += 1;
                                }
                            }
                        }

                        else {
                            votes[1] += 1;
                        }

                        // tree #24
                        if (x[1] <= -0.17514415830373764) {
                            votes[1] += 1;
                        }

                        else {
                            if (x[3] <= 0.7328027188777924) {
                                if (x[0] <= -0.14599100686609745) {
                                    votes[0] += 1;
                                }

                                else {
                                    if (x[1] <= 0.03102104365825653) {
                                        if (x[0] <= 0.30158496648073196) {
                                            votes[0] += 1;
                                        }

                                        else {
                                            votes[1] += 1;
                                        }
                                    }

                                    else {
                                        votes[1] += 1;
                                    }
                                }
                            }

                            else {
                                votes[1] += 1;
                            }
                        }

                        // tree #25
                        if (x[2] <= -0.9384118616580963) {
                            if (x[4] <= 1.1611324846744537) {
                                votes[0] += 1;
                            }

                            else {
                                votes[1] += 1;
                            }
                        }

                        else {
                            votes[1] += 1;
                        }

                        // tree #26
                        if (x[5] <= 0.014598794281482697) {
                            votes[0] += 1;
                        }

                        else {
                            if (x[5] <= 0.01977621018886566) {
                                if (x[7] <= -0.016417866107076406) {
                                    votes[0] += 1;
                                }

                                else {
                                    if (x[3] <= 0.2978277802467346) {
                                        votes[1] += 1;
                                    }

                                    else {
                                        if (x[1] <= -0.5446855574846268) {
                                            votes[1] += 1;
                                        }

                                        else {
                                            votes[0] += 1;
                                        }
                                    }
                                }
                            }

                            else {
                                votes[1] += 1;
                            }
                        }

                        // tree #27
                        if (x[2] <= -0.9384118616580963) {
                            if (x[0] <= -0.05778260715305805) {
                                if (x[6] <= -0.02602425403892994) {
                                    votes[1] += 1;
                                }

                                else {
                                    if (x[4] <= 1.1611324846744537) {
                                        votes[0] += 1;
                                    }

                                    else {
                                        votes[1] += 1;
                                    }
                                }
                            }

                            else {
                                votes[1] += 1;
                            }
                        }

                        else {
                            votes[1] += 1;
                        }

                        // tree #28
                        if (x[0] <= -1.7696790099143982) {
                            votes[0] += 1;
                        }

                        else {
                            if (x[2] <= -0.9384118616580963) {
                                if (x[1] <= 0.25941430032253265) {
                                    if (x[6] <= -0.005166777758859098) {
                                        votes[0] += 1;
                                    }

                                    else {
                                        votes[1] += 1;
                                    }
                                }

                                else {
                                    if (x[1] <= 1.5633675456047058) {
                                        votes[0] += 1;
                                    }

                                    else {
                                        votes[1] += 1;
                                    }
                                }
                            }

                            else {
                                votes[1] += 1;
                            }
                        }

                        // tree #29
                        if (x[5] <= 0.016597705893218517) {
                            if (x[0] <= 0.06962952762842178) {
                                votes[0] += 1;
                            }

                            else {
                                votes[1] += 1;
                            }
                        }

                        else {
                            votes[1] += 1;
                        }

                        // tree #30
                        if (x[1] <= -0.18987023830413818) {
                            votes[1] += 1;
                        }

                        else {
                            if (x[4] <= 1.0950937569141388) {
                                if (x[0] <= -0.028379807248711586) {
                                    votes[0] += 1;
                                }

                                else {
                                    votes[1] += 1;
                                }
                            }

                            else {
                                votes[1] += 1;
                            }
                        }

                        // tree #31
                        if (x[2] <= -1.036358892917633) {
                            if (x[3] <= 0.9106475710868835) {
                                votes[0] += 1;
                            }

                            else {
                                votes[1] += 1;
                            }
                        }

                        else {
                            votes[1] += 1;
                        }

                        // tree #32
                        if (x[2] <= -0.9384118616580963) {
                            if (x[4] <= 1.4183023869991302) {
                                votes[0] += 1;
                            }

                            else {
                                votes[1] += 1;
                            }
                        }

                        else {
                            votes[1] += 1;
                        }

                        // tree #33
                        if (x[0] <= -0.7928526103496552) {
                            if (x[5] <= 0.05985995475202799) {
                                votes[0] += 1;
                            }

                            else {
                                votes[1] += 1;
                            }
                        }

                        else {
                            if (x[4] <= 0.7540052831172943) {
                                votes[1] += 1;
                            }

                            else {
                                if (x[6] <= -0.0020805438980460167) {
                                    votes[0] += 1;
                                }

                                else {
                                    votes[1] += 1;
                                }
                            }
                        }

                        // tree #34
                        if (x[0] <= -0.028379807248711586) {
                            if (x[5] <= 0.01985541731119156) {
                                votes[0] += 1;
                            }

                            else {
                                if (x[4] <= 0.6083272993564606) {
                                    votes[0] += 1;
                                }

                                else {
                                    votes[1] += 1;
                                }
                            }
                        }

                        else {
                            votes[1] += 1;
                        }

                        // tree #35
                        if (x[6] <= 0.0024168374948203564) {
                            if (x[0] <= -0.028379807248711586) {
                                if (x[5] <= 0.02969254646450281) {
                                    votes[0] += 1;
                                }

                                else {
                                    votes[1] += 1;
                                }
                            }

                            else {
                                votes[1] += 1;
                            }
                        }

                        else {
                            votes[1] += 1;
                        }

                        // tree #36
                        if (x[5] <= 0.014880165457725525) {
                            votes[0] += 1;
                        }

                        else {
                            if (x[0] <= -1.799081802368164) {
                                votes[0] += 1;
                            }

                            else {
                                if (x[0] <= -0.09698634035885334) {
                                    if (x[1] <= 0.11965541169047356) {
                                        if (x[4] <= 1.4690958559513092) {
                                            votes[0] += 1;
                                        }

                                        else {
                                            votes[1] += 1;
                                        }
                                    }

                                    else {
                                        votes[1] += 1;
                                    }
                                }

                                else {
                                    votes[1] += 1;
                                }
                            }
                        }

                        // tree #37
                        if (x[3] <= 0.1475757211446762) {
                            if (x[4] <= 0.43257394433021545) {
                                votes[0] += 1;
                            }

                            else {
                                votes[1] += 1;
                            }
                        }

                        else {
                            if (x[6] <= -0.001999999978579581) {
                                if (x[7] <= -0.001516676158644259) {
                                    votes[0] += 1;
                                }

                                else {
                                    if (x[2] <= -0.9384118616580963) {
                                        votes[0] += 1;
                                    }

                                    else {
                                        votes[1] += 1;
                                    }
                                }
                            }

                            else {
                                votes[1] += 1;
                            }
                        }

                        // tree #38
                        if (x[1] <= -0.1818125694990158) {
                            votes[1] += 1;
                        }

                        else {
                            if (x[2] <= -0.5466236770153046) {
                                votes[0] += 1;
                            }

                            else {
                                votes[1] += 1;
                            }
                        }

                        // tree #39
                        if (x[1] <= -0.13957926630973816) {
                            votes[1] += 1;
                        }

                        else {
                            if (x[2] <= -0.5466236770153046) {
                                if (x[3] <= 0.9161820113658905) {
                                    votes[0] += 1;
                                }

                                else {
                                    votes[1] += 1;
                                }
                            }

                            else {
                                votes[1] += 1;
                            }
                        }

                        // tree #40
                        if (x[3] <= 0.184929259121418) {
                            if (x[4] <= 0.5923121273517609) {
                                votes[0] += 1;
                            }

                            else {
                                votes[1] += 1;
                            }
                        }

                        else {
                            if (x[2] <= -0.9384118616580963) {
                                if (x[3] <= 0.9106475710868835) {
                                    if (x[8] <= -0.0006666777771897614) {
                                        votes[1] += 1;
                                    }

                                    else {
                                        votes[0] += 1;
                                    }
                                }

                                else {
                                    votes[1] += 1;
                                }
                            }

                            else {
                                votes[1] += 1;
                            }
                        }

                        // tree #41
                        if (x[2] <= -0.9384118616580963) {
                            if (x[3] <= 0.6637097299098969) {
                                if (x[0] <= 0.13823606818914413) {
                                    votes[0] += 1;
                                }

                                else {
                                    votes[1] += 1;
                                }
                            }

                            else {
                                votes[1] += 1;
                            }
                        }

                        else {
                            votes[1] += 1;
                        }

                        // tree #42
                        if (x[5] <= 0.016597705893218517) {
                            if (x[2] <= -0.056888431310653687) {
                                votes[0] += 1;
                            }

                            else {
                                votes[1] += 1;
                            }
                        }

                        else {
                            if (x[0] <= -1.799081802368164) {
                                votes[0] += 1;
                            }

                            else {
                                votes[1] += 1;
                            }
                        }

                        // tree #43
                        if (x[2] <= -0.9384118616580963) {
                            if (x[1] <= -0.5691364258527756) {
                                votes[1] += 1;
                            }

                            else {
                                if (x[7] <= -0.0770321087911725) {
                                    votes[1] += 1;
                                }

                                else {
                                    votes[0] += 1;
                                }
                            }
                        }

                        else {
                            votes[1] += 1;
                        }

                        // tree #44
                        if (x[5] <= 0.016597705893218517) {
                            if (x[0] <= 0.06962952762842178) {
                                votes[0] += 1;
                            }

                            else {
                                votes[1] += 1;
                            }
                        }

                        else {
                            if (x[1] <= 0.969600647687912) {
                                votes[1] += 1;
                            }

                            else {
                                if (x[0] <= -1.5932621955871582) {
                                    votes[0] += 1;
                                }

                                else {
                                    votes[1] += 1;
                                }
                            }
                        }

                        // tree #45
                        if (x[5] <= 0.015266754664480686) {
                            votes[0] += 1;
                        }

                        else {
                            if (x[2] <= -0.9384118616580963) {
                                if (x[3] <= 0.8692502081394196) {
                                    votes[0] += 1;
                                }

                                else {
                                    votes[1] += 1;
                                }
                            }

                            else {
                                votes[1] += 1;
                            }
                        }

                        // tree #46
                        if (x[1] <= -0.1818125694990158) {
                            votes[1] += 1;
                        }

                        else {
                            if (x[5] <= 0.019831920973956585) {
                                votes[0] += 1;
                            }

                            else {
                                if (x[2] <= -1.1343059539794922) {
                                    if (x[2] <= -1.4281470775604248) {
                                        votes[1] += 1;
                                    }

                                    else {
                                        votes[0] += 1;
                                    }
                                }

                                else {
                                    votes[1] += 1;
                                }
                            }
                        }

                        // tree #47
                        if (x[5] <= 0.014906374737620354) {
                            votes[0] += 1;
                        }

                        else {
                            if (x[1] <= 0.969600647687912) {
                                votes[1] += 1;
                            }

                            else {
                                if (x[4] <= 1.1581768095493317) {
                                    votes[0] += 1;
                                }

                                else {
                                    votes[1] += 1;
                                }
                            }
                        }

                        // tree #48
                        if (x[0] <= -0.028379807248711586) {
                            if (x[2] <= -0.5466236770153046) {
                                if (x[4] <= 1.3473059833049774) {
                                    votes[0] += 1;
                                }

                                else {
                                    votes[1] += 1;
                                }
                            }

                            else {
                                votes[1] += 1;
                            }
                        }

                        else {
                            votes[1] += 1;
                        }

                        // tree #49
                        if (x[2] <= -0.9384118616580963) {
                            if (x[3] <= 0.6458794474601746) {
                                if (x[8] <= -0.00033333332976326346) {
                                    if (x[6] <= -0.005166777758859098) {
                                        votes[0] += 1;
                                    }

                                    else {
                                        votes[1] += 1;
                                    }
                                }

                                else {
                                    votes[0] += 1;
                                }
                            }

                            else {
                                votes[1] += 1;
                            }
                        }

                        else {
                            votes[1] += 1;
                        }

                        // tree #50
                        if (x[5] <= 0.014880165457725525) {
                            votes[0] += 1;
                        }

                        else {
                            if (x[0] <= -1.8154166340827942) {
                                votes[0] += 1;
                            }

                            else {
                                if (x[1] <= -0.1804233193397522) {
                                    votes[1] += 1;
                                }

                                else {
                                    if (x[3] <= 0.47310756146907806) {
                                        if (x[3] <= 0.2625417709350586) {
                                            votes[1] += 1;
                                        }

                                        else {
                                            votes[0] += 1;
                                        }
                                    }

                                    else {
                                        votes[1] += 1;
                                    }
                                }
                            }
                        }

                        // tree #51
                        if (x[1] <= 0.25941430032253265) {
                            if (x[0] <= -0.018578874063678086) {
                                if (x[6] <= 0.0010832138359546661) {
                                    votes[0] += 1;
                                }

                                else {
                                    votes[1] += 1;
                                }
                            }

                            else {
                                votes[1] += 1;
                            }
                        }

                        else {
                            if (x[2] <= -0.5466236770153046) {
                                votes[0] += 1;
                            }

                            else {
                                votes[1] += 1;
                            }
                        }

                        // tree #52
                        if (x[4] <= 0.9035128653049469) {
                            if (x[5] <= 0.016597705893218517) {
                                if (x[7] <= 0.017650404945015907) {
                                    if (x[7] <= 0.009366978891193867) {
                                        votes[0] += 1;
                                    }

                                    else {
                                        if (x[4] <= 0.7262266874313354) {
                                            votes[1] += 1;
                                        }

                                        else {
                                            votes[0] += 1;
                                        }
                                    }
                                }

                                else {
                                    votes[1] += 1;
                                }
                            }

                            else {
                                if (x[0] <= -0.9594684857875109) {
                                    votes[0] += 1;
                                }

                                else {
                                    votes[1] += 1;
                                }
                            }
                        }

                        else {
                            votes[1] += 1;
                        }

                        // tree #53
                        if (x[1] <= -0.17514415830373764) {
                            votes[1] += 1;
                        }

                        else {
                            if (x[3] <= 0.6491719782352448) {
                                if (x[2] <= -0.056888431310653687) {
                                    votes[0] += 1;
                                }

                                else {
                                    votes[1] += 1;
                                }
                            }

                            else {
                                votes[1] += 1;
                            }
                        }

                        // tree #54
                        if (x[6] <= -0.001999999978579581) {
                            if (x[2] <= -0.9384118616580963) {
                                if (x[5] <= 0.03363826218992472) {
                                    votes[0] += 1;
                                }

                                else {
                                    votes[1] += 1;
                                }
                            }

                            else {
                                votes[1] += 1;
                            }
                        }

                        else {
                            if (x[5] <= 0.014598794281482697) {
                                votes[0] += 1;
                            }

                            else {
                                if (x[4] <= 0.5689316987991333) {
                                    if (x[0] <= -0.9660024214535952) {
                                        votes[0] += 1;
                                    }

                                    else {
                                        votes[1] += 1;
                                    }
                                }

                                else {
                                    votes[1] += 1;
                                }
                            }
                        }

                        // tree #55
                        if (x[5] <= 0.014906374737620354) {
                            votes[0] += 1;
                        }

                        else {
                            if (x[2] <= -0.9384118616580963) {
                                if (x[3] <= 0.6173683106899261) {
                                    if (x[2] <= -1.036358892917633) {
                                        votes[0] += 1;
                                    }

                                    else {
                                        if (x[7] <= 0.004708455293439329) {
                                            votes[1] += 1;
                                        }

                                        else {
                                            votes[0] += 1;
                                        }
                                    }
                                }

                                else {
                                    votes[1] += 1;
                                }
                            }

                            else {
                                votes[1] += 1;
                            }
                        }

                        // tree #56
                        if (x[5] <= 0.016597705893218517) {
                            if (x[0] <= 0.020624861121177673) {
                                votes[0] += 1;
                            }

                            else {
                                votes[1] += 1;
                            }
                        }

                        else {
                            if (x[5] <= 0.01977621018886566) {
                                if (x[1] <= 0.47419290244579315) {
                                    votes[1] += 1;
                                }

                                else {
                                    votes[0] += 1;
                                }
                            }

                            else {
                                votes[1] += 1;
                            }
                        }

                        // tree #57
                        if (x[0] <= -0.028379807248711586) {
                            if (x[3] <= 0.6637097299098969) {
                                if (x[5] <= 0.021498299203813076) {
                                    votes[0] += 1;
                                }

                                else {
                                    votes[1] += 1;
                                }
                            }

                            else {
                                votes[1] += 1;
                            }
                        }

                        else {
                            votes[1] += 1;
                        }

                        // tree #58
                        if (x[2] <= -0.9384118616580963) {
                            if (x[3] <= 0.9155916273593903) {
                                votes[0] += 1;
                            }

                            else {
                                votes[1] += 1;
                            }
                        }

                        else {
                            votes[1] += 1;
                        }

                        // tree #59
                        if (x[5] <= 0.014598794281482697) {
                            votes[0] += 1;
                        }

                        else {
                            if (x[0] <= -1.825217604637146) {
                                votes[0] += 1;
                            }

                            else {
                                if (x[5] <= 0.016597705893218517) {
                                    if (x[7] <= 0.005033490480855107) {
                                        votes[0] += 1;
                                    }

                                    else {
                                        votes[1] += 1;
                                    }
                                }

                                else {
                                    votes[1] += 1;
                                }
                            }
                        }

                        // tree #60
                        if (x[0] <= -0.31914083659648895) {
                            if (x[3] <= 0.644227921962738) {
                                votes[0] += 1;
                            }

                            else {
                                votes[1] += 1;
                            }
                        }

                        else {
                            votes[1] += 1;
                        }

                        // tree #61
                        if (x[1] <= -0.17514415830373764) {
                            votes[1] += 1;
                        }

                        else {
                            if (x[4] <= 1.0593588650226593) {
                                if (x[4] <= 0.6751513779163361) {
                                    if (x[2] <= -0.10586196184158325) {
                                        votes[0] += 1;
                                    }

                                    else {
                                        votes[1] += 1;
                                    }
                                }

                                else {
                                    votes[0] += 1;
                                }
                            }

                            else {
                                votes[1] += 1;
                            }
                        }

                        // tree #62
                        if (x[0] <= -0.028379807248711586) {
                            if (x[8] <= 0.000499927788041532) {
                                if (x[8] <= -0.0010000111069530249) {
                                    votes[1] += 1;
                                }

                                else {
                                    votes[0] += 1;
                                }
                            }

                            else {
                                votes[1] += 1;
                            }
                        }

                        else {
                            votes[1] += 1;
                        }

                        // tree #63
                        if (x[1] <= -0.1818125694990158) {
                            votes[1] += 1;
                        }

                        else {
                            if (x[4] <= 0.9038496017456055) {
                                if (x[5] <= 0.019831920973956585) {
                                    votes[0] += 1;
                                }

                                else {
                                    if (x[3] <= 0.15838249772787094) {
                                        votes[0] += 1;
                                    }

                                    else {
                                        votes[1] += 1;
                                    }
                                }
                            }

                            else {
                                votes[1] += 1;
                            }
                        }

                        // tree #64
                        if (x[2] <= -0.9384118616580963) {
                            if (x[6] <= 0.0030834598001092672) {
                                if (x[1] <= -0.5691364258527756) {
                                    votes[1] += 1;
                                }

                                else {
                                    votes[0] += 1;
                                }
                            }

                            else {
                                votes[1] += 1;
                            }
                        }

                        else {
                            votes[1] += 1;
                        }

                        // tree #65
                        if (x[0] <= -0.812454491853714) {
                            if (x[4] <= 1.1495362222194672) {
                                votes[0] += 1;
                            }

                            else {
                                votes[1] += 1;
                            }
                        }

                        else {
                            if (x[5] <= 0.016597705893218517) {
                                if (x[0] <= 0.06962952762842178) {
                                    votes[0] += 1;
                                }

                                else {
                                    votes[1] += 1;
                                }
                            }

                            else {
                                votes[1] += 1;
                            }
                        }

                        // tree #66
                        if (x[3] <= 0.07879121601581573) {
                            votes[0] += 1;
                        }

                        else {
                            if (x[5] <= 0.014906374737620354) {
                                votes[0] += 1;
                            }

                            else {
                                if (x[0] <= -0.09698634035885334) {
                                    if (x[3] <= 0.5660678148269653) {
                                        votes[0] += 1;
                                    }

                                    else {
                                        votes[1] += 1;
                                    }
                                }

                                else {
                                    votes[1] += 1;
                                }
                            }
                        }

                        // tree #67
                        if (x[6] <= -0.0018333499901928008) {
                            if (x[0] <= -0.01204491825774312) {
                                if (x[3] <= 0.9112379550933838) {
                                    votes[0] += 1;
                                }

                                else {
                                    votes[1] += 1;
                                }
                            }

                            else {
                                votes[1] += 1;
                            }
                        }

                        else {
                            if (x[4] <= 0.5994800329208374) {
                                if (x[0] <= -0.45308692939579487) {
                                    votes[0] += 1;
                                }

                                else {
                                    votes[1] += 1;
                                }
                            }

                            else {
                                votes[1] += 1;
                            }
                        }

                        // tree #68
                        if (x[5] <= 0.014598794281482697) {
                            votes[0] += 1;
                        }

                        else {
                            if (x[6] <= -0.004166805651038885) {
                                if (x[2] <= -0.9384118616580963) {
                                    votes[0] += 1;
                                }

                                else {
                                    votes[1] += 1;
                                }
                            }

                            else {
                                votes[1] += 1;
                            }
                        }

                        // tree #69
                        if (x[1] <= 0.9043057262897491) {
                            if (x[6] <= -0.008000116562470794) {
                                votes[0] += 1;
                            }

                            else {
                                if (x[5] <= 0.01427721232175827) {
                                    votes[0] += 1;
                                }

                                else {
                                    if (x[2] <= -0.9384118616580963) {
                                        if (x[4] <= 1.4690958559513092) {
                                            if (x[1] <= -0.5735820308327675) {
                                                votes[1] += 1;
                                            }

                                            else {
                                                votes[0] += 1;
                                            }
                                        }

                                        else {
                                            votes[1] += 1;
                                        }
                                    }

                                    else {
                                        votes[1] += 1;
                                    }
                                }
                            }
                        }

                        else {
                            if (x[7] <= 0.0024677333422005177) {
                                votes[0] += 1;
                            }

                            else {
                                if (x[4] <= 1.1989343464374542) {
                                    votes[0] += 1;
                                }

                                else {
                                    votes[1] += 1;
                                }
                            }
                        }

                        // tree #70
                        if (x[2] <= -0.9384118616580963) {
                            if (x[4] <= 1.122117668390274) {
                                if (x[5] <= 0.030934101901948452) {
                                    votes[0] += 1;
                                }

                                else {
                                    votes[1] += 1;
                                }
                            }

                            else {
                                votes[1] += 1;
                            }
                        }

                        else {
                            votes[1] += 1;
                        }

                        // tree #71
                        if (x[2] <= -0.9384118616580963) {
                            if (x[5] <= 0.017109237611293793) {
                                votes[0] += 1;
                            }

                            else {
                                votes[1] += 1;
                            }
                        }

                        else {
                            votes[1] += 1;
                        }

                        // tree #72
                        if (x[2] <= -0.9384118616580963) {
                            if (x[3] <= 0.9155916273593903) {
                                if (x[0] <= 0.13823606818914413) {
                                    votes[0] += 1;
                                }

                                else {
                                    votes[1] += 1;
                                }
                            }

                            else {
                                votes[1] += 1;
                            }
                        }

                        else {
                            votes[1] += 1;
                        }

                        // tree #73
                        if (x[2] <= -0.9384118616580963) {
                            if (x[7] <= -0.018188542686402798) {
                                votes[1] += 1;
                            }

                            else {
                                if (x[6] <= 0.0030001055274624377) {
                                    if (x[8] <= -0.003580019692890346) {
                                        votes[1] += 1;
                                    }

                                    else {
                                        votes[0] += 1;
                                    }
                                }

                                else {
                                    votes[1] += 1;
                                }
                            }
                        }

                        else {
                            votes[1] += 1;
                        }

                        // tree #74
                        if (x[5] <= 0.016053072176873684) {
                            if (x[2] <= 0.04105859994888306) {
                                votes[0] += 1;
                            }

                            else {
                                votes[1] += 1;
                            }
                        }

                        else {
                            if (x[7] <= 0.001366666634567082) {
                                if (x[7] <= -0.0006333650089800358) {
                                    if (x[1] <= 0.9651550352573395) {
                                        votes[1] += 1;
                                    }

                                    else {
                                        votes[0] += 1;
                                    }
                                }

                                else {
                                    votes[0] += 1;
                                }
                            }

                            else {
                                votes[1] += 1;
                            }
                        }

                        // tree #75
                        if (x[5] <= 0.014959174208343029) {
                            votes[0] += 1;
                        }

                        else {
                            if (x[0] <= -1.8154166340827942) {
                                votes[0] += 1;
                            }

                            else {
                                if (x[1] <= -0.17653340846300125) {
                                    votes[1] += 1;
                                }

                                else {
                                    if (x[1] <= -0.15486105531454086) {
                                        votes[0] += 1;
                                    }

                                    else {
                                        votes[1] += 1;
                                    }
                                }
                            }
                        }

                        // tree #76
                        if (x[1] <= 0.4152885228395462) {
                            if (x[2] <= -1.036358892917633) {
                                if (x[6] <= 0.0019989502616226673) {
                                    votes[0] += 1;
                                }

                                else {
                                    votes[1] += 1;
                                }
                            }

                            else {
                                if (x[6] <= -0.004000072251074016) {
                                    if (x[2] <= -0.10586196184158325) {
                                        votes[0] += 1;
                                    }

                                    else {
                                        votes[1] += 1;
                                    }
                                }

                                else {
                                    votes[1] += 1;
                                }
                            }
                        }

                        else {
                            if (x[4] <= 0.8578579127788544) {
                                if (x[0] <= -0.37141248770058155) {
                                    votes[0] += 1;
                                }

                                else {
                                    votes[1] += 1;
                                }
                            }

                            else {
                                votes[1] += 1;
                            }
                        }

                        // tree #77
                        if (x[1] <= -0.18987023830413818) {
                            votes[1] += 1;
                        }

                        else {
                            if (x[5] <= 0.019831920973956585) {
                                votes[0] += 1;
                            }

                            else {
                                if (x[4] <= 0.6081206202507019) {
                                    if (x[2] <= -0.15483546257019043) {
                                        votes[0] += 1;
                                    }

                                    else {
                                        votes[1] += 1;
                                    }
                                }

                                else {
                                    votes[1] += 1;
                                }
                            }
                        }

                        // tree #78
                        if (x[8] <= 0.0003344546421431005) {
                            if (x[5] <= 0.015266754664480686) {
                                votes[0] += 1;
                            }

                            else {
                                if (x[8] <= 0.00016667222371324897) {
                                    if (x[2] <= -1.085332453250885) {
                                        if (x[4] <= 1.4665053486824036) {
                                            votes[0] += 1;
                                        }

                                        else {
                                            votes[1] += 1;
                                        }
                                    }

                                    else {
                                        votes[1] += 1;
                                    }
                                }

                                else {
                                    votes[0] += 1;
                                }
                            }
                        }

                        else {
                            votes[1] += 1;
                        }

                        // tree #79
                        if (x[2] <= -0.9384118616580963) {
                            if (x[4] <= 1.1253975927829742) {
                                if (x[5] <= 0.04298519715666771) {
                                    votes[0] += 1;
                                }

                                else {
                                    votes[1] += 1;
                                }
                            }

                            else {
                                votes[1] += 1;
                            }
                        }

                        else {
                            votes[1] += 1;
                        }

                        // tree #80
                        if (x[1] <= -0.18459107726812363) {
                            votes[1] += 1;
                        }

                        else {
                            if (x[2] <= -0.5466236770153046) {
                                if (x[4] <= 1.3473059833049774) {
                                    votes[0] += 1;
                                }

                                else {
                                    votes[1] += 1;
                                }
                            }

                            else {
                                votes[1] += 1;
                            }
                        }

                        // tree #81
                        if (x[5] <= 0.014598794281482697) {
                            votes[0] += 1;
                        }

                        else {
                            if (x[5] <= 0.016663331538438797) {
                                if (x[0] <= -0.028379805386066437) {
                                    votes[0] += 1;
                                }

                                else {
                                    votes[1] += 1;
                                }
                            }

                            else {
                                if (x[4] <= 0.6081206202507019) {
                                    if (x[2] <= -0.8894383311271667) {
                                        votes[0] += 1;
                                    }

                                    else {
                                        votes[1] += 1;
                                    }
                                }

                                else {
                                    votes[1] += 1;
                                }
                            }
                        }

                        // tree #82
                        if (x[0] <= -1.3613067269325256) {
                            if (x[4] <= 1.8257752656936646) {
                                votes[0] += 1;
                            }

                            else {
                                votes[1] += 1;
                            }
                        }

                        else {
                            if (x[6] <= -0.003833333379589021) {
                                if (x[7] <= 0.009566666558384895) {
                                    votes[0] += 1;
                                }

                                else {
                                    votes[1] += 1;
                                }
                            }

                            else {
                                votes[1] += 1;
                            }
                        }

                        // tree #83
                        if (x[2] <= -0.9384118616580963) {
                            if (x[3] <= 0.6637097299098969) {
                                if (x[1] <= -0.563857264816761) {
                                    votes[1] += 1;
                                }

                                else {
                                    votes[0] += 1;
                                }
                            }

                            else {
                                votes[1] += 1;
                            }
                        }

                        else {
                            votes[1] += 1;
                        }

                        // tree #84
                        if (x[2] <= -0.9384118616580963) {
                            if (x[4] <= 1.311571091413498) {
                                votes[0] += 1;
                            }

                            else {
                                votes[1] += 1;
                            }
                        }

                        else {
                            votes[1] += 1;
                        }

                        // tree #85
                        if (x[0] <= -0.028379807248711586) {
                            if (x[8] <= -0.0010000111069530249) {
                                votes[1] += 1;
                            }

                            else {
                                if (x[3] <= 0.7328027188777924) {
                                    votes[0] += 1;
                                }

                                else {
                                    votes[1] += 1;
                                }
                            }
                        }

                        else {
                            votes[1] += 1;
                        }

                        // tree #86
                        if (x[5] <= 0.015266754664480686) {
                            votes[0] += 1;
                        }

                        else {
                            if (x[0] <= -1.825217604637146) {
                                votes[0] += 1;
                            }

                            else {
                                if (x[2] <= -0.9384118616580963) {
                                    if (x[0] <= -0.4530869275331497) {
                                        votes[1] += 1;
                                    }

                                    else {
                                        if (x[2] <= -1.2812265157699585) {
                                            votes[1] += 1;
                                        }

                                        else {
                                            if (x[5] <= 0.03363826218992472) {
                                                votes[0] += 1;
                                            }

                                            else {
                                                votes[1] += 1;
                                            }
                                        }
                                    }
                                }

                                else {
                                    votes[1] += 1;
                                }
                            }
                        }

                        // tree #87
                        if (x[2] <= -0.9384118616580963) {
                            if (x[5] <= 0.02032000944018364) {
                                if (x[0] <= 0.05656161904335022) {
                                    votes[0] += 1;
                                }

                                else {
                                    votes[1] += 1;
                                }
                            }

                            else {
                                if (x[8] <= 0.0006665888940915465) {
                                    votes[1] += 1;
                                }

                                else {
                                    votes[0] += 1;
                                }
                            }
                        }

                        else {
                            votes[1] += 1;
                        }

                        // tree #88
                        if (x[0] <= -0.028379807248711586) {
                            if (x[7] <= -0.025366667192429304) {
                                votes[1] += 1;
                            }

                            else {
                                if (x[7] <= 0.0742232408374548) {
                                    if (x[2] <= -0.20380902290344238) {
                                        votes[0] += 1;
                                    }

                                    else {
                                        votes[1] += 1;
                                    }
                                }

                                else {
                                    votes[1] += 1;
                                }
                            }
                        }

                        else {
                            votes[1] += 1;
                        }

                        // tree #89
                        if (x[2] <= -0.9384118616580963) {
                            if (x[6] <= 0.0020000000949949026) {
                                if (x[8] <= -0.0004999999946448952) {
                                    votes[1] += 1;
                                }

                                else {
                                    votes[0] += 1;
                                }
                            }

                            else {
                                votes[1] += 1;
                            }
                        }

                        else {
                            votes[1] += 1;
                        }

                        // tree #90
                        if (x[2] <= -0.9384118616580963) {
                            if (x[5] <= 0.0413749348372221) {
                                if (x[4] <= 1.7222444117069244) {
                                    votes[0] += 1;
                                }

                                else {
                                    votes[1] += 1;
                                }
                            }

                            else {
                                votes[1] += 1;
                            }
                        }

                        else {
                            votes[1] += 1;
                        }

                        // tree #91
                        if (x[2] <= -0.9384118616580963) {
                            if (x[5] <= 0.016832378692924976) {
                                votes[0] += 1;
                            }

                            else {
                                if (x[0] <= -1.498519778251648) {
                                    votes[0] += 1;
                                }

                                else {
                                    votes[1] += 1;
                                }
                            }
                        }

                        else {
                            votes[1] += 1;
                        }

                        // tree #92
                        if (x[2] <= -0.9384118616580963) {
                            if (x[5] <= 0.014906374737620354) {
                                votes[0] += 1;
                            }

                            else {
                                if (x[4] <= 1.3473059833049774) {
                                    if (x[8] <= -0.00033333332976326346) {
                                        votes[1] += 1;
                                    }

                                    else {
                                        votes[0] += 1;
                                    }
                                }

                                else {
                                    votes[1] += 1;
                                }
                            }
                        }

                        else {
                            votes[1] += 1;
                        }

                        // tree #93
                        if (x[0] <= -0.028379807248711586) {
                            if (x[3] <= 0.6491719782352448) {
                                votes[0] += 1;
                            }

                            else {
                                votes[1] += 1;
                            }
                        }

                        else {
                            votes[1] += 1;
                        }

                        // tree #94
                        if (x[2] <= -0.9384118616580963) {
                            if (x[5] <= 0.04298519715666771) {
                                if (x[4] <= 1.686509519815445) {
                                    votes[0] += 1;
                                }

                                else {
                                    votes[1] += 1;
                                }
                            }

                            else {
                                votes[1] += 1;
                            }
                        }

                        else {
                            votes[1] += 1;
                        }

                        // tree #95
                        if (x[5] <= 0.014906374737620354) {
                            votes[0] += 1;
                        }

                        else {
                            votes[1] += 1;
                        }

                        // tree #96
                        if (x[2] <= -0.9384118616580963) {
                            if (x[1] <= 0.25941430032253265) {
                                if (x[4] <= 0.7457436621189117) {
                                    votes[1] += 1;
                                }

                                else {
                                    if (x[2] <= -1.1343059539794922) {
                                        votes[1] += 1;
                                    }

                                    else {
                                        votes[0] += 1;
                                    }
                                }
                            }

                            else {
                                if (x[1] <= 1.7225759625434875) {
                                    votes[0] += 1;
                                }

                                else {
                                    votes[1] += 1;
                                }
                            }
                        }

                        else {
                            votes[1] += 1;
                        }

                        // tree #97
                        if (x[5] <= 0.015266754664480686) {
                            votes[0] += 1;
                        }

                        else {
                            if (x[1] <= 0.969600647687912) {
                                if (x[6] <= -0.004000072251074016) {
                                    if (x[7] <= 0.0012500827433541417) {
                                        votes[0] += 1;
                                    }

                                    else {
                                        if (x[3] <= 0.4359355568885803) {
                                            votes[1] += 1;
                                        }

                                        else {
                                            if (x[6] <= -0.005166838876903057) {
                                                votes[1] += 1;
                                            }

                                            else {
                                                votes[0] += 1;
                                            }
                                        }
                                    }
                                }

                                else {
                                    votes[1] += 1;
                                }
                            }

                            else {
                                if (x[6] <= -0.003997435327619314) {
                                    votes[1] += 1;
                                }

                                else {
                                    votes[0] += 1;
                                }
                            }
                        }

                        // tree #98
                        if (x[2] <= -0.9384118616580963) {
                            if (x[1] <= -0.3032333105802536) {
                                votes[1] += 1;
                            }

                            else {
                                votes[0] += 1;
                            }
                        }

                        else {
                            votes[1] += 1;
                        }

                        // tree #99
                        if (x[5] <= 0.016597705893218517) {
                            if (x[0] <= 0.5433412864804268) {
                                votes[0] += 1;
                            }

                            else {
                                votes[1] += 1;
                            }
                        }

                        else {
                            votes[1] += 1;
                        }

                        // tree #100
                        if (x[2] <= -0.9384118616580963) {
                            if (x[4] <= 1.3473059833049774) {
                                if (x[0] <= 0.08923140168190002) {
                                    votes[0] += 1;
                                }

                                else {
                                    votes[1] += 1;
                                }
                            }

                            else {
                                votes[1] += 1;
                            }
                        }

                        else {
                            votes[1] += 1;
                        }

                        // return argmax of votes
                        uint8_t classIdx = 0;
                        float maxVotes = votes[0];

                        for (uint8_t i = 1; i < 2; i++) {
                            if (votes[i] > maxVotes) {
                                classIdx = i;
                                maxVotes = votes[i];
                            }
                        }

                        return classIdx;
                    }

                protected:
                };
            }
        }
    }